// GENERATED by tools/train-taste.mjs — do not edit. Rerun the tool after
// re-exporting vessel-taste-ratings.json. These weights are ARTWORK STATE:
// regenerating them changes which shape every existing seed deals.
const TASTE = {"vessel":{"W1":[[-0.07258194,-0.08306629,-0.4637853,0.5254043,-0.7129301,0.1340873,0.06129238,-0.4356121,0.08462039,0.1643906,0.4253578,0.6259586,0.05653976,0.2519638,0.0426781,0.3032067,0.1660368,0.1187233],[0.2732714,0.0188031,0.6117637,0.008020955,0.6351568,0.1212421,-0.1385425,0.5205884,-0.4222256,-0.7346522,0.4498615,0.278358,-0.3564718,-0.264106,0.07615183,0.4348481,-0.4731136,-0.1700069],[0.2229261,0.317848,0.3436462,-0.2866238,0.3854762,-0.1385976,0.2128774,-0.1080493,0.08651371,-0.2092825,-0.08299295,0.3173321,-0.3736016,-0.147567,0.08610699,-0.1212767,0.1857058,-0.3847269],[-0.003815468,0.01604827,0.6919062,0.1422561,0.01665938,-0.1437651,0.1073089,0.1805092,-0.5697401,0.3506343,-0.1508331,-0.2389293,-0.2547517,0.592304,0.2636766,0.2138601,0.262879,0.04870157],[0.1385448,0.7844824,0.7793978,0.2036918,-0.3175847,-0.236351,0.3034907,0.8680209,-0.2616081,-0.4605768,-0.09090209,0.4375627,-0.86918,0.07871814,-0.1168162,0.4747641,-0.0001398692,-0.3418806],[-0.6312223,0.6512591,0.3690061,0.03843004,0.3269231,0.7185927,0.6141863,0.7475553,-0.2979684,-0.04557448,0.006324062,-0.03271062,-0.1629216,-0.1565599,-0.2131975,0.4204839,-0.7327291,-0.5193236],[5.697288,5.180947,0.7737989,2.196673,1.0204,0.337513,-1.90248,1.495895,0.6380962,-3.19499,-0.6917233,-3.773489,1.413718,-1.432489,-0.03788442,-3.057813,4.20389,-1.616127],[-0.5543685,-1.058231,-1.291015,-0.8515566,-0.2712051,0.7464292,0.4072372,0.2873574,-0.124203,0.6478466,-0.6008999,-0.1400056,0.737093,0.4409562,1.407218,0.2955483,-0.3022704,0.3199455],[-2.501036,0.03442053,-1.69338,0.7323375,0.03685977,3.582429,4.038234,-0.7985368,3.239116,-3.794245,1.33604,-1.477658,2.948611,-0.6669483,4.18617,1.183494,-4.584757,2.151326],[-0.2751754,1.275766,1.350996,2.378676,-0.2672408,-0.7292871,0.3735079,0.4005111,-1.548881,-3.547589,1.172056,-0.07136864,0.5724219,-2.300071,0.1291737,0.738158,0.3092962,-1.079072],[-0.1158532,-0.2544231,-0.3969976,0.2201918,0.08013398,0.5000086,-0.7389925,-0.02010315,0.499563,-0.4509462,-0.1843325,-0.4991639,-0.07704547,0.03031876,0.06065837,0.01864627,0.03074677,-0.005586163],[-1.2433,-0.3135862,0.8553324,-0.003973359,0.350629,0.3843226,2.3954,1.320901,0.4414057,-0.9856575,1.219477,1.777636,-1.380698,-0.1123109,-0.6326349,2.672007,-1.39014,-1.109276],[2.295198,0.0165673,-4.982396,-0.7905404,-0.09365561,2.352485,-2.289765,-2.439908,2.724889,-0.7446573,-2.560552,-5.380653,4.699916,-0.1481385,3.055317,-4.078416,-1.140024,5.770152],[-0.1935836,-0.5831443,-0.329737,-0.001397666,0.04716124,-0.2113728,-0.1455179,-0.1035472,-0.4331243,0.2340446,-0.2252415,0.2917465,-0.471578,-0.1883034,0.08995435,-0.2462554,-0.4023559,0.01392698],[0.524284,-0.3845725,0.9262578,0.1617978,-0.07612559,0.6721494,0.541178,-0.1210699,-0.05057898,-0.3500069,0.4410041,0.2136984,-0.5863573,0.0851884,0.07189303,0.2291679,-0.633264,-0.5472461],[-0.3100498,-2.107212,1.327769,2.048494,0.9207443,1.519875,0.9051847,1.748655,-2.409283,-1.642248,-1.562278,2.871428,0.6132921,-0.5965062,0.449691,0.3098703,0.2457031,-3.619159]],"b1":[0.2799258,-0.07147283,-0.1912508,-0.4153031,-0.5963596,-0.4676263,-7.661054,0.2349296,0.1724545,0.008659902,0.3624293,-0.9502405,1.843178,0.6607042,-0.3265736,-2.67644],"W2":[0.06729699,0.1340103,0.1591309,0.1707598,0.2006555,0.1739764,-7.012726,-1.037828,-3.079258,2.364663,-0.2336452,2.160938,3.400692,0.4748035,0.3651221,3.525727],"b2":-1.21048,"acc":0.8571429},"stem":{"W1":[[0.6810475,-0.4604658,-2.442593,-0.5994221,-3.83714,0.0009543253,1.267982,-3.097051,2.720836,-0.3386305,2.656048,3.11484,2.753722,0.9676422,2.464922,0.9578362,0.4387624,-1.854896],[1.823088,0.3039069,0.8612766,0.7570438,2.847801,-4.204511,-2.46778,1.294578,-2.628606,-1.814667,1.914575,-0.2666121,-0.852603,-2.091945,2.921598,-1.684394,-0.8579004,-0.9635595],[0.4879763,-0.1478184,-0.0692085,-0.53022,0.8884273,-0.0527486,-0.3783497,-0.5879509,-0.2516052,-0.51825,0.09773932,0.2107889,-0.1240388,-0.8574506,0.8198026,-0.6360742,0.2691614,-0.8216107],[-0.3927556,-0.58347,0.7567238,0.5047949,-0.05764887,-0.283904,2.307685,0.3611317,-0.06254392,0.3362711,-0.4756439,-1.511714,-0.6918349,0.4658698,0.03596866,-0.9260864,0.9353174,0.4106182],[-0.06609472,1.048812,-0.1405345,0.1114827,-0.7602298,0.06313533,0.1762225,1.622462,0.3573192,0.2842205,-0.7574631,0.02491588,-0.476745,0.6812768,-0.8934807,0.8467172,0.0311474,0.2556884],[-0.5216959,0.7799687,-0.07847411,-0.1564269,0.3199623,1.187255,0.8406711,1.23804,1.003022,0.5843086,-1.064433,-0.3399993,0.3219388,0.1248175,-1.223292,0.6695047,-0.1956435,-0.1036115],[0.3230146,0.544496,0.2463612,0.4204094,0.2156342,0.5418514,1.274544,-0.1251097,0.7170542,0.3172198,-0.2754804,-0.2940185,-0.1931093,-0.9020682,0.5858239,-1.546843,0.755637,-0.7871039],[-0.6956758,0.2840086,-1.562114,2.470665,-2.684077,1.258299,-1.625676,-1.749847,-1.057104,0.5719586,1.351915,1.560319,0.7254246,-0.2978156,2.043306,0.4913676,-1.030519,0.03132674],[-1.479957,0.9518821,-1.071005,0.01238295,0.6199193,0.9032644,-0.3411192,-0.2777506,1.950358,-0.4560464,0.3881847,-0.1208169,0.2522228,-0.9875841,0.8292613,0.6619425,-0.7669374,-0.9153743],[0.6872468,0.1440656,-0.09409096,0.3055973,0.7677617,0.4733954,2.102003,-0.1006482,-0.9044594,-0.7670437,0.163325,-0.946903,-0.525693,-0.6183847,1.565235,-0.7357066,-0.08622031,0.06132293],[0.2992,-0.6005892,-0.1205229,-0.4937552,0.0250393,0.388463,-1.574339,-0.1742277,0.03320439,-0.3224691,-0.3901537,-0.03514726,-0.1448255,0.7277648,-0.1161972,0.7067473,-0.04888324,0.3653829],[-0.1066049,0.1832014,-0.548898,0.2895729,0.3585754,0.3987809,-0.07041363,-0.1161118,0.6559912,-0.243986,0.7232051,0.266998,0.1403204,-0.7222663,-0.1753916,0.3019464,-0.2422812,-0.3655647],[2.753887,0.09713791,-0.3782838,-2.572768,1.274125,2.60769,-3.685486,-1.121279,0.5294312,-1.07376,-1.299693,-0.4335359,0.2817514,1.641078,0.6811703,0.6970951,-0.007691067,1.955037],[0.05055576,-0.1514653,-0.1778644,0.2749113,0.4225472,0.06705876,-0.09312882,0.08274134,-0.1287088,0.1995856,0.1440299,0.310456,-0.2305782,-0.1207419,0.1410308,-0.1986102,-0.3023573,-0.1864361],[1.878947,-0.9946514,0.9680008,-0.7153051,0.5363373,2.990717,-2.461448,-0.7483156,0.782968,-0.03863834,1.109288,0.2492137,-0.2676871,-0.5727219,0.9805305,-0.5639399,-1.129838,-0.3929413],[-0.4569969,-0.2902875,0.1997596,0.7545825,-0.8455396,0.2985715,0.4360202,0.5687354,1.039973,-0.1026931,-0.769002,0.2993198,0.1360864,0.5883287,-0.2447789,0.5598375,0.0204418,1.066927]],"b1":[-0.1102853,2.954701,-0.09248888,-0.4696823,0.39958,0.3754088,0.1239534,-0.2362485,-0.3208617,0.231006,-0.5203411,0.02789656,-2.738268,0.1731929,-0.5122969,-0.1444099],"W2":[6.893748,7.330243,-1.327854,2.482377,1.825671,2.345281,-1.732569,3.835304,-2.364986,-2.306771,1.557969,-0.7443676,6.356323,-0.2781315,-3.504545,1.334476],"b2":-1.51344,"acc":1}};
